<?xml version="1.0" encoding="UTF-8"?>
<!-- This network was created in GeNIe Academic, which can be used for academic teaching and research purposes only -->
<smile version="1.0" id="bayesData_half" numsamples="10000" discsamples="10000">
	<nodes>
		<cpt id="ego_speed">
			<state id="low" />
			<state id="mid" />
			<state id="stop" />
			<probabilities>0.1391327480712956 0.8606012237297155 0.0002660281989890929</probabilities>
		</cpt>
		<cpt id="ego_direc">
			<state id="left" />
			<state id="right" />
			<state id="straight" />
			<probabilities>0.2034883720930233 0.2383720930232558 0.5581395348837209</probabilities>
		</cpt>
		<cpt id="ego_lane">
			<state id="right" />
			<state id="left" />
			<probabilities>0.65 0.35</probabilities>
		</cpt>
		<cpt id="rel_f0">
			<state id="close" />
			<state id="far" />
			<state id="mid" />
			<parents>ego_lane ego_speed ego_direc</parents>
			<probabilities>0.0001555451858764971 0.02488722974023954 0.974957225073884 0.0001555451858764971 0.02488722974023954 0.974957225073884 0.0001555451858764971 0.02488722974023954 0.974957225073884 0.0001555451858764971 0.02488722974023954 0.974957225073884 0.0001555451858764971 0.02488722974023954 0.974957225073884 0.0001555451858764971 0.02488722974023954 0.974957225073884 0.0001555451858764971 0.02488722974023954 0.974957225073884 0.0001555451858764971 0.02488722974023954 0.974957225073884 0.0001555451858764971 0.02488722974023954 0.974957225073884 0.0001261193088661874 0.03039475343675117 0.9694791272543828 0.0001261193088661874 0.03039475343675117 0.9694791272543828 0.0001261193088661874 0.03039475343675117 0.9694791272543828 0.0001261193088661874 0.03039475343675117 0.9694791272543828 0.0001261193088661874 0.03039475343675117 0.9694791272543828 0.0001261193088661874 0.03039475343675117 0.9694791272543828 0.0001261193088661874 0.03039475343675117 0.9694791272543828 0.0001261193088661874 0.03039475343675117 0.9694791272543828 0.0001261193088661874 0.03039475343675117 0.9694791272543828</probabilities>
		</cpt>
		<cpt id="rel_b0">
			<state id="close" />
			<state id="far" />
			<state id="mid" />
			<parents>ego_lane ego_speed ego_direc</parents>
			<probabilities>4.550625711035267e-05 0.01465301478953356 0.9853014789533561 4.550625711035267e-05 0.01465301478953356 0.9853014789533561 4.550625711035267e-05 0.01465301478953356 0.9853014789533561 4.550625711035267e-05 0.01465301478953356 0.9853014789533561 4.550625711035267e-05 0.01465301478953356 0.9853014789533561 4.550625711035267e-05 0.01465301478953356 0.9853014789533561 4.550625711035267e-05 0.01465301478953356 0.9853014789533561 4.550625711035267e-05 0.01465301478953356 0.9853014789533561 4.550625711035267e-05 0.01465301478953356 0.9853014789533561 4.550625711035267e-05 0.01465301478953356 0.9853014789533561 4.550625711035267e-05 0.01465301478953356 0.9853014789533561 4.550625711035267e-05 0.01465301478953356 0.9853014789533561 4.550625711035267e-05 0.01465301478953356 0.9853014789533561 4.550625711035267e-05 0.01465301478953356 0.9853014789533561 4.550625711035267e-05 0.01465301478953356 0.9853014789533561 4.550625711035267e-05 0.01465301478953356 0.9853014789533561 4.550625711035267e-05 0.01465301478953356 0.9853014789533561 4.550625711035267e-05 0.01465301478953356 0.9853014789533561</probabilities>
		</cpt>
		<cpt id="rel_f1">
			<state id="high" />
			<state id="mid" />
			<state id="near" />
			<parents>ego_lane ego_speed ego_direc</parents>
			<probabilities>0.03350279189932495 0.9640803400283359 0.002416868072339362 0.03350279189932495 0.9640803400283359 0.002416868072339362 0.03350279189932495 0.9640803400283359 0.002416868072339362 0.03350279189932495 0.9640803400283359 0.002416868072339362 0.03350279189932495 0.9640803400283359 0.002416868072339362 0.03350279189932495 0.9640803400283359 0.002416868072339362 0.03350279189932495 0.9640803400283359 0.002416868072339362 0.03350279189932495 0.9640803400283359 0.002416868072339362 0.03350279189932495 0.9640803400283359 0.002416868072339362 0.03350279189932495 0.9640803400283359 0.002416868072339362 0.03350279189932495 0.9640803400283359 0.002416868072339362 0.03350279189932495 0.9640803400283359 0.002416868072339362 0.03350279189932495 0.9640803400283359 0.002416868072339362 0.03350279189932495 0.9640803400283359 0.002416868072339362 0.03350279189932495 0.9640803400283359 0.002416868072339362 0.03350279189932495 0.9640803400283359 0.002416868072339362 0.03350279189932495 0.9640803400283359 0.002416868072339362 0.03350279189932495 0.9640803400283359 0.002416868072339362</probabilities>
		</cpt>
		<cpt id="f1_intension">
			<state id="left" />
			<state id="right" />
			<state id="straight" />
			<probabilities>0.06009615384615385 0.3629807692307693 0.576923076923077</probabilities>
		</cpt>
		<cpt id="f1_acc">
			<state id="acc" />
			<state id="dec" />
			<state id="keep" />
			<probabilities>0.697508896797153 0.1450177935943061 0.1574733096085409</probabilities>
		</cpt>
		<cpt id="f1_speed">
			<state id="low" />
			<state id="mid" />
			<state id="stop" />
			<probabilities>0.6502112519457416 0.247498332221481 0.1022904158327774</probabilities>
		</cpt>
		<cpt id="is_safe_f0">
			<state id="safe" />
			<state id="unsafe" />
			<parents>f1_intension f1_acc f1_speed rel_f1 ego_speed</parents>
			<probabilities>0.2372134038800706 0.7627865961199295 0.2372134038800706 0.7627865961199295 0.2372134038800706 0.7627865961199295 0.2372134038800706 0.7627865961199295 0.2372134038800706 0.7627865961199295 0.2372134038800706 0.7627865961199295 0.2372134038800706 0.7627865961199295 0.2372134038800706 0.7627865961199295 0.2372134038800706 0.7627865961199295 0.2372134038800706 0.7627865961199295 0.2372134038800706 0.7627865961199295 0.2372134038800706 0.7627865961199295 0.2372134038800706 0.7627865961199295 0.2372134038800706 0.7627865961199295 0.2372134038800706 0.7627865961199295 0.2372134038800706 0.7627865961199295 0.2372134038800706 0.7627865961199295 0.2372134038800706 0.7627865961199295 0.2372134038800706 0.7627865961199295 0.2372134038800706 0.7627865961199295 0.2372134038800706 0.7627865961199295 0.2372134038800706 0.7627865961199295 0.2372134038800706 0.7627865961199295 0.2372134038800706 0.7627865961199295 0.2372134038800706 0.7627865961199295 0.2372134038800706 0.7627865961199295 0.2372134038800706 0.7627865961199295 0.2372134038800706 0.7627865961199295 0.2372134038800706 0.7627865961199295 0.2372134038800706 0.7627865961199295 0.2372134038800706 0.7627865961199295 0.2372134038800706 0.7627865961199295 0.2372134038800706 0.7627865961199295 0.2372134038800706 0.7627865961199295 0.2372134038800706 0.7627865961199295 0.2372134038800706 0.7627865961199295 0.2372134038800706 0.7627865961199295 0.2372134038800706 0.7627865961199295 0.2372134038800706 0.7627865961199295 0.2372134038800706 0.7627865961199295 0.2372134038800706 0.7627865961199295 0.2372134038800706 0.7627865961199295 0.2372134038800706 0.7627865961199295 0.2372134038800706 0.7627865961199295 0.2372134038800706 0.7627865961199295 0.2372134038800706 0.7627865961199295 0.2372134038800706 0.7627865961199295 0.2372134038800706 0.7627865961199295 0.2372134038800706 0.7627865961199295 0.2372134038800706 0.7627865961199295 0.2372134038800706 0.7627865961199295 0.2372134038800706 0.7627865961199295 0.2372134038800706 0.7627865961199295 0.2372134038800706 0.7627865961199295 0.2372134038800706 0.7627865961199295 0.2372134038800706 0.7627865961199295 0.2372134038800706 0.7627865961199295 0.2372134038800706 0.7627865961199295 0.2372134038800706 0.7627865961199295 0.2372134038800706 0.7627865961199295 0.2372134038800706 0.7627865961199295 0.2372134038800706 0.7627865961199295 0.2372134038800706 0.7627865961199295 0.2372134038800706 0.7627865961199295 0.2372134038800706 0.7627865961199295 0.2372134038800706 0.7627865961199295 0.2372134038800706 0.7627865961199295 0.2372134038800706 0.7627865961199295 0.2372134038800706 0.7627865961199295 0.2372134038800706 0.7627865961199295 0.2372134038800706 0.7627865961199295 0.2372134038800706 0.7627865961199295 0.2372134038800706 0.7627865961199295 0.2372134038800706 0.7627865961199295 0.2372134038800706 0.7627865961199295 0.2372134038800706 0.7627865961199295 0.2372134038800706 0.7627865961199295 0.2372134038800706 0.7627865961199295 0.2372134038800706 0.7627865961199295 0.2372134038800706 0.7627865961199295 0.2372134038800706 0.7627865961199295 0.2372134038800706 0.7627865961199295 0.2372134038800706 0.7627865961199295 0.2372134038800706 0.7627865961199295 0.2372134038800706 0.7627865961199295 0.2372134038800706 0.7627865961199295 0.2372134038800706 0.7627865961199295 0.2372134038800706 0.7627865961199295 0.2372134038800706 0.7627865961199295 0.2372134038800706 0.7627865961199295 0.2372134038800706 0.7627865961199295 0.2372134038800706 0.7627865961199295 0.2372134038800706 0.7627865961199295 0.2372134038800706 0.7627865961199295 0.2372134038800706 0.7627865961199295 0.2372134038800706 0.7627865961199295 0.2372134038800706 0.7627865961199295 0.2372134038800706 0.7627865961199295 0.2372134038800706 0.7627865961199295 0.2372134038800706 0.7627865961199295 0.2372134038800706 0.7627865961199295 0.2372134038800706 0.7627865961199295 0.2372134038800706 0.7627865961199295 0.2372134038800706 0.7627865961199295 0.2372134038800706 0.7627865961199295 0.2372134038800706 0.7627865961199295 0.2372134038800706 0.7627865961199295 0.2372134038800706 0.7627865961199295 0.2372134038800706 0.7627865961199295 0.2372134038800706 0.7627865961199295 0.2372134038800706 0.7627865961199295 0.2372134038800706 0.7627865961199295 0.2372134038800706 0.7627865961199295 0.2372134038800706 0.7627865961199295 0.2372134038800706 0.7627865961199295 0.2372134038800706 0.7627865961199295 0.2372134038800706 0.7627865961199295 0.2372134038800706 0.7627865961199295 0.2372134038800706 0.7627865961199295 0.2372134038800706 0.7627865961199295 0.2372134038800706 0.7627865961199295 0.2372134038800706 0.7627865961199295 0.2372134038800706 0.7627865961199295 0.2372134038800706 0.7627865961199295 0.2372134038800706 0.7627865961199295 0.2372134038800706 0.7627865961199295 0.2372134038800706 0.7627865961199295 0.2372134038800706 0.7627865961199295 0.2372134038800706 0.7627865961199295 0.2372134038800706 0.7627865961199295 0.2372134038800706 0.7627865961199295 0.2372134038800706 0.7627865961199295 0.2372134038800706 0.7627865961199295 0.2372134038800706 0.7627865961199295 0.2372134038800706 0.7627865961199295 0.2372134038800706 0.7627865961199295 0.2372134038800706 0.7627865961199295 0.2372134038800706 0.7627865961199295 0.2372134038800706 0.7627865961199295 0.2372134038800706 0.7627865961199295 0.2372134038800706 0.7627865961199295 0.2372134038800706 0.7627865961199295 0.2372134038800706 0.7627865961199295 0.2372134038800706 0.7627865961199295 0.2372134038800706 0.7627865961199295 0.2372134038800706 0.7627865961199295 0.2372134038800706 0.7627865961199295 0.2372134038800706 0.7627865961199295 0.2372134038800706 0.7627865961199295 0.2372134038800706 0.7627865961199295 0.2372134038800706 0.7627865961199295 0.2372134038800706 0.7627865961199295 0.2372134038800706 0.7627865961199295 0.2372134038800706 0.7627865961199295 0.2372134038800706 0.7627865961199295 0.2372134038800706 0.7627865961199295 0.2372134038800706 0.7627865961199295 0.2372134038800706 0.7627865961199295 0.2372134038800706 0.7627865961199295 0.2372134038800706 0.7627865961199295 0.2372134038800706 0.7627865961199295 0.2372134038800706 0.7627865961199295 0.2372134038800706 0.7627865961199295 0.2372134038800706 0.7627865961199295 0.2372134038800706 0.7627865961199295 0.2372134038800706 0.7627865961199295 0.2372134038800706 0.7627865961199295 0.2372134038800706 0.7627865961199295 0.2372134038800706 0.7627865961199295 0.2372134038800706 0.7627865961199295 0.2372134038800706 0.7627865961199295 0.2372134038800706 0.7627865961199295 0.2372134038800706 0.7627865961199295 0.2372134038800706 0.7627865961199295 0.2372134038800706 0.7627865961199295 0.2372134038800706 0.7627865961199295 0.2372134038800706 0.7627865961199295 0.2372134038800706 0.7627865961199295 0.2372134038800706 0.7627865961199295 0.2372134038800706 0.7627865961199295 0.2372134038800706 0.7627865961199295 0.2372134038800706 0.7627865961199295 0.2372134038800706 0.7627865961199295 0.2372134038800706 0.7627865961199295 0.2372134038800706 0.7627865961199295 0.2372134038800706 0.7627865961199295 0.2372134038800706 0.7627865961199295 0.2372134038800706 0.7627865961199295 0.2372134038800706 0.7627865961199295 0.2372134038800706 0.7627865961199295 0.2372134038800706 0.7627865961199295 0.2372134038800706 0.7627865961199295 0.2372134038800706 0.7627865961199295 0.2372134038800706 0.7627865961199295 0.2372134038800706 0.7627865961199295 0.2372134038800706 0.7627865961199295 0.2372134038800706 0.7627865961199295 0.2372134038800706 0.7627865961199295 0.2372134038800706 0.7627865961199295 0.2372134038800706 0.7627865961199295 0.2372134038800706 0.7627865961199295 0.2372134038800706 0.7627865961199295 0.2372134038800706 0.7627865961199295 0.2372134038800706 0.7627865961199295 0.2372134038800706 0.7627865961199295 0.2372134038800706 0.7627865961199295 0.2372134038800706 0.7627865961199295 0.2372134038800706 0.7627865961199295 0.2372134038800706 0.7627865961199295 0.2372134038800706 0.7627865961199295 0.2372134038800706 0.7627865961199295 0.2372134038800706 0.7627865961199295 0.2372134038800706 0.7627865961199295 0.2372134038800706 0.7627865961199295 0.2372134038800706 0.7627865961199295 0.2372134038800706 0.7627865961199295 0.2372134038800706 0.7627865961199295 0.2372134038800706 0.7627865961199295 0.2372134038800706 0.7627865961199295 0.2372134038800706 0.7627865961199295 0.2372134038800706 0.7627865961199295 0.2372134038800706 0.7627865961199295 0.2372134038800706 0.7627865961199295 0.2372134038800706 0.7627865961199295 0.2372134038800706 0.7627865961199295 0.2372134038800706 0.7627865961199295 0.2372134038800706 0.7627865961199295 0.2372134038800706 0.7627865961199295 0.2372134038800706 0.7627865961199295 0.2372134038800706 0.7627865961199295 0.2372134038800706 0.7627865961199295 0.2372134038800706 0.7627865961199295 0.2372134038800706 0.7627865961199295 0.2372134038800706 0.7627865961199295 0.2372134038800706 0.7627865961199295 0.2372134038800706 0.7627865961199295 0.2372134038800706 0.7627865961199295 0.2372134038800706 0.7627865961199295 0.2372134038800706 0.7627865961199295 0.2372134038800706 0.7627865961199295 0.2372134038800706 0.7627865961199295 0.2372134038800706 0.7627865961199295 0.2372134038800706 0.7627865961199295</probabilities>
		</cpt>
		<cpt id="f0_acc">
			<state id="acc" />
			<state id="dec" />
			<state id="keep" />
			<probabilities>0.2965734541157936 0.3840094525403702 0.3194170933438362</probabilities>
		</cpt>
		<cpt id="f0_intension">
			<state id="left" />
			<state id="right" />
			<state id="straight" />
			<probabilities>0.45 0.25 0.3</probabilities>
		</cpt>
		<cpt id="f0_speed">
			<state id="low" />
			<state id="mid" />
			<state id="stop" />
			<probabilities>0.3 0.45 0.25</probabilities>
		</cpt>
		<cpt id="is_safe_f1">
			<state id="safe" />
			<state id="unsafe" />
			<parents>f0_acc rel_f0 f0_intension f0_speed ego_lane</parents>
			<probabilities>0.9999118321283724 8.816787162757891e-05 0.9999118321283724 8.816787162757891e-05 0.9999118321283724 8.816787162757891e-05 0.9999118321283724 8.816787162757891e-05 0.9999118321283724 8.816787162757891e-05 0.9999118321283724 8.816787162757891e-05 0.9999118321283724 8.816787162757891e-05 0.9999118321283724 8.816787162757891e-05 0.9999118321283724 8.816787162757891e-05 0.9999118321283724 8.816787162757891e-05 0.9999118321283724 8.816787162757891e-05 0.9999118321283724 8.816787162757891e-05 0.9999118321283724 8.816787162757891e-05 0.9999118321283724 8.816787162757891e-05 0.9999118321283724 8.816787162757891e-05 0.9999118321283724 8.816787162757891e-05 0.9999118321283724 8.816787162757891e-05 0.9999118321283724 8.816787162757891e-05 0.9999118321283724 8.816787162757891e-05 0.9999118321283724 8.816787162757891e-05 0.9999118321283724 8.816787162757891e-05 0.9999118321283724 8.816787162757891e-05 0.9999118321283724 8.816787162757891e-05 0.9999118321283724 8.816787162757891e-05 0.9999118321283724 8.816787162757891e-05 0.9999118321283724 8.816787162757891e-05 0.9999118321283724 8.816787162757891e-05 0.9999118321283724 8.816787162757891e-05 0.9999118321283724 8.816787162757891e-05 0.9999118321283724 8.816787162757891e-05 0.9999118321283724 8.816787162757891e-05 0.9999118321283724 8.816787162757891e-05 0.9999118321283724 8.816787162757891e-05 0.9999118321283724 8.816787162757891e-05 0.9999118321283724 8.816787162757891e-05 0.9999118321283724 8.816787162757891e-05 0.9999118321283724 8.816787162757891e-05 0.9999118321283724 8.816787162757891e-05 0.9999118321283724 8.816787162757891e-05 0.9999118321283724 8.816787162757891e-05 0.9999118321283724 8.816787162757891e-05 0.9999118321283724 8.816787162757891e-05 0.9999118321283724 8.816787162757891e-05 0.9999118321283724 8.816787162757891e-05 0.9999118321283724 8.816787162757891e-05 0.9999118321283724 8.816787162757891e-05 0.9999118321283724 8.816787162757891e-05 0.9999118321283724 8.816787162757891e-05 0.9999118321283724 8.816787162757891e-05 0.9999118321283724 8.816787162757891e-05 0.9999118321283724 8.816787162757891e-05 0.9999118321283724 8.816787162757891e-05 0.9999118321283724 8.816787162757891e-05 0.9999118321283724 8.816787162757891e-05 0.9999118321283724 8.816787162757891e-05 0.9999118321283724 8.816787162757891e-05 0.9999118321283724 8.816787162757891e-05 0.9999118321283724 8.816787162757891e-05 0.9999118321283724 8.816787162757891e-05 0.9999118321283724 8.816787162757891e-05 0.9999118321283724 8.816787162757891e-05 0.9999118321283724 8.816787162757891e-05 0.9999118321283724 8.816787162757891e-05 0.9999118321283724 8.816787162757891e-05 0.9999118321283724 8.816787162757891e-05 0.9999118321283724 8.816787162757891e-05 0.9999118321283724 8.816787162757891e-05 0.9999118321283724 8.816787162757891e-05 0.9999118321283724 8.816787162757891e-05 0.9999118321283724 8.816787162757891e-05 0.9999118321283724 8.816787162757891e-05 0.9999118321283724 8.816787162757891e-05 0.9999118321283724 8.816787162757891e-05 0.9999118321283724 8.816787162757891e-05 0.9999118321283724 8.816787162757891e-05 0.9999118321283724 8.816787162757891e-05 0.9999118321283724 8.816787162757891e-05 0.9999118321283724 8.816787162757891e-05 0.9999118321283724 8.816787162757891e-05 0.9999118321283724 8.816787162757891e-05 0.9999118321283724 8.816787162757891e-05 0.9999118321283724 8.816787162757891e-05 0.9999118321283724 8.816787162757891e-05 0.9999118321283724 8.816787162757891e-05 0.9999118321283724 8.816787162757891e-05 0.9999118321283724 8.816787162757891e-05 0.9999118321283724 8.816787162757891e-05 0.9999118321283724 8.816787162757891e-05 0.9999118321283724 8.816787162757891e-05 0.9999118321283724 8.816787162757891e-05 0.9999118321283724 8.816787162757891e-05 0.9999118321283724 8.816787162757891e-05 0.9999118321283724 8.816787162757891e-05 0.9999118321283724 8.816787162757891e-05 0.9999118321283724 8.816787162757891e-05 0.9999118321283724 8.816787162757891e-05 0.9999118321283724 8.816787162757891e-05 0.9999118321283724 8.816787162757891e-05 0.9999118321283724 8.816787162757891e-05 0.9999118321283724 8.816787162757891e-05 0.9999118321283724 8.816787162757891e-05 0.9999118321283724 8.816787162757891e-05 0.9999118321283724 8.816787162757891e-05 0.9999118321283724 8.816787162757891e-05 0.9999118321283724 8.816787162757891e-05 0.9999118321283724 8.816787162757891e-05 0.9999118321283724 8.816787162757891e-05 0.9999118321283724 8.816787162757891e-05 0.9999118321283724 8.816787162757891e-05 0.9999118321283724 8.816787162757891e-05 0.9999118321283724 8.816787162757891e-05 0.9999118321283724 8.816787162757891e-05 0.9999118321283724 8.816787162757891e-05 0.9999118321283724 8.816787162757891e-05 0.9999118321283724 8.816787162757891e-05 0.9999118321283724 8.816787162757891e-05 0.9999118321283724 8.816787162757891e-05 0.9999118321283724 8.816787162757891e-05 0.9999118321283724 8.816787162757891e-05 0.9999118321283724 8.816787162757891e-05 0.9999118321283724 8.816787162757891e-05 0.9999118321283724 8.816787162757891e-05 0.9999118321283724 8.816787162757891e-05 0.9999118321283724 8.816787162757891e-05 0.9999118321283724 8.816787162757891e-05 0.9999118321283724 8.816787162757891e-05 0.9999118321283724 8.816787162757891e-05 0.9999118321283724 8.816787162757891e-05 0.9999118321283724 8.816787162757891e-05 0.9999118321283724 8.816787162757891e-05 0.9999118321283724 8.816787162757891e-05 0.9999118321283724 8.816787162757891e-05 0.9999118321283724 8.816787162757891e-05 0.9999118321283724 8.816787162757891e-05 0.9999118321283724 8.816787162757891e-05 0.9999118321283724 8.816787162757891e-05 0.9999118321283724 8.816787162757891e-05 0.9999118321283724 8.816787162757891e-05 0.9999118321283724 8.816787162757891e-05 0.9999118321283724 8.816787162757891e-05 0.9999118321283724 8.816787162757891e-05 0.9999118321283724 8.816787162757891e-05 0.9999118321283724 8.816787162757891e-05 0.9999118321283724 8.816787162757891e-05 0.9999118321283724 8.816787162757891e-05 0.9999118321283724 8.816787162757891e-05 0.9999118321283724 8.816787162757891e-05 0.9999118321283724 8.816787162757891e-05 0.9999118321283724 8.816787162757891e-05 0.9999118321283724 8.816787162757891e-05 0.9999118321283724 8.816787162757891e-05 0.9999118321283724 8.816787162757891e-05 0.9999118321283724 8.816787162757891e-05 0.9999118321283724 8.816787162757891e-05 0.9999118321283724 8.816787162757891e-05 0.9999118321283724 8.816787162757891e-05 0.9999118321283724 8.816787162757891e-05 0.9999118321283724 8.816787162757891e-05 0.9999118321283724 8.816787162757891e-05 0.9999118321283724 8.816787162757891e-05 0.9999118321283724 8.816787162757891e-05 0.9999118321283724 8.816787162757891e-05</probabilities>
		</cpt>
		<cpt id="b0_intension">
			<state id="left" />
			<state id="right" />
			<state id="straight" />
			<probabilities>0.0009208103130755065 0.7992633517495397 0.1998158379373849</probabilities>
		</cpt>
		<cpt id="b0_speed">
			<state id="low" />
			<state id="mid" />
			<state id="stop" />
			<probabilities>0.880786686838124 0.09288956127080181 0.02632375189107413</probabilities>
		</cpt>
		<cpt id="b0_acc">
			<state id="acc" />
			<state id="dec" />
			<state id="keep" />
			<probabilities>0.2811900991749312 0.2870239186598883 0.4317859821651804</probabilities>
		</cpt>
		<cpt id="is_safe_b0">
			<state id="safe" />
			<state id="unsafe" />
			<parents>b0_intension rel_b0 b0_speed b0_acc ego_speed</parents>
			<probabilities>0.1707805203468979 0.8292194796531021 0.1707805203468979 0.8292194796531021 0.1707805203468979 0.8292194796531021 0.1707805203468979 0.8292194796531021 0.1707805203468979 0.8292194796531021 0.1707805203468979 0.8292194796531021 0.1707805203468979 0.8292194796531021 0.1707805203468979 0.8292194796531021 0.1707805203468979 0.8292194796531021 0.1707805203468979 0.8292194796531021 0.1707805203468979 0.8292194796531021 0.1707805203468979 0.8292194796531021 0.1707805203468979 0.8292194796531021 0.1707805203468979 0.8292194796531021 0.1707805203468979 0.8292194796531021 0.1707805203468979 0.8292194796531021 0.1707805203468979 0.8292194796531021 0.1707805203468979 0.8292194796531021 0.1707805203468979 0.8292194796531021 0.1707805203468979 0.8292194796531021 0.1707805203468979 0.8292194796531021 0.1707805203468979 0.8292194796531021 0.1707805203468979 0.8292194796531021 0.1707805203468979 0.8292194796531021 0.1707805203468979 0.8292194796531021 0.1707805203468979 0.8292194796531021 0.1707805203468979 0.8292194796531021 0.1707805203468979 0.8292194796531021 0.1707805203468979 0.8292194796531021 0.1707805203468979 0.8292194796531021 0.1707805203468979 0.8292194796531021 0.1707805203468979 0.8292194796531021 0.1707805203468979 0.8292194796531021 0.1707805203468979 0.8292194796531021 0.1707805203468979 0.8292194796531021 0.1707805203468979 0.8292194796531021 0.1707805203468979 0.8292194796531021 0.1707805203468979 0.8292194796531021 0.1707805203468979 0.8292194796531021 0.1707805203468979 0.8292194796531021 0.1707805203468979 0.8292194796531021 0.1707805203468979 0.8292194796531021 0.1707805203468979 0.8292194796531021 0.1707805203468979 0.8292194796531021 0.1707805203468979 0.8292194796531021 0.1707805203468979 0.8292194796531021 0.1707805203468979 0.8292194796531021 0.1707805203468979 0.8292194796531021 0.1707805203468979 0.8292194796531021 0.1707805203468979 0.8292194796531021 0.1707805203468979 0.8292194796531021 0.1707805203468979 0.8292194796531021 0.1707805203468979 0.8292194796531021 0.1707805203468979 0.8292194796531021 0.1707805203468979 0.8292194796531021 0.1707805203468979 0.8292194796531021 0.1707805203468979 0.8292194796531021 0.1707805203468979 0.8292194796531021 0.1707805203468979 0.8292194796531021 0.1707805203468979 0.8292194796531021 0.1707805203468979 0.8292194796531021 0.1707805203468979 0.8292194796531021 0.1707805203468979 0.8292194796531021 0.1707805203468979 0.8292194796531021 0.1707805203468979 0.8292194796531021 0.1707805203468979 0.8292194796531021 0.1707805203468979 0.8292194796531021 0.1707805203468979 0.8292194796531021 0.1707805203468979 0.8292194796531021 0.1707805203468979 0.8292194796531021 0.1707805203468979 0.8292194796531021 0.1707805203468979 0.8292194796531021 0.1707805203468979 0.8292194796531021 0.1707805203468979 0.8292194796531021 0.1707805203468979 0.8292194796531021 0.1707805203468979 0.8292194796531021 0.1707805203468979 0.8292194796531021 0.1707805203468979 0.8292194796531021 0.1707805203468979 0.8292194796531021 0.1707805203468979 0.8292194796531021 0.1707805203468979 0.8292194796531021 0.1707805203468979 0.8292194796531021 0.1707805203468979 0.8292194796531021 0.1707805203468979 0.8292194796531021 0.1707805203468979 0.8292194796531021 0.1707805203468979 0.8292194796531021 0.1707805203468979 0.8292194796531021 0.1707805203468979 0.8292194796531021 0.1707805203468979 0.8292194796531021 0.1707805203468979 0.8292194796531021 0.1707805203468979 0.8292194796531021 0.1707805203468979 0.8292194796531021 0.1707805203468979 0.8292194796531021 0.1707805203468979 0.8292194796531021 0.1707805203468979 0.8292194796531021 0.1707805203468979 0.8292194796531021 0.1707805203468979 0.8292194796531021 0.1707805203468979 0.8292194796531021 0.1707805203468979 0.8292194796531021 0.1707805203468979 0.8292194796531021 0.1707805203468979 0.8292194796531021 0.1707805203468979 0.8292194796531021 0.1707805203468979 0.8292194796531021 0.1707805203468979 0.8292194796531021 0.1707805203468979 0.8292194796531021 0.1707805203468979 0.8292194796531021 0.1707805203468979 0.8292194796531021 0.1707805203468979 0.8292194796531021 0.1707805203468979 0.8292194796531021 0.1707805203468979 0.8292194796531021 0.1707805203468979 0.8292194796531021 0.1707805203468979 0.8292194796531021 0.1707805203468979 0.8292194796531021 0.1707805203468979 0.8292194796531021 0.1707805203468979 0.8292194796531021 0.1707805203468979 0.8292194796531021 0.1707805203468979 0.8292194796531021 0.1707805203468979 0.8292194796531021 0.1707805203468979 0.8292194796531021 0.1707805203468979 0.8292194796531021 0.1707805203468979 0.8292194796531021 0.1707805203468979 0.8292194796531021 0.1707805203468979 0.8292194796531021 0.1707805203468979 0.8292194796531021 0.1707805203468979 0.8292194796531021 0.1707805203468979 0.8292194796531021 0.1707805203468979 0.8292194796531021 0.1707805203468979 0.8292194796531021 0.1707805203468979 0.8292194796531021 0.1707805203468979 0.8292194796531021 0.1707805203468979 0.8292194796531021 0.1707805203468979 0.8292194796531021 0.1707805203468979 0.8292194796531021 0.1707805203468979 0.8292194796531021 0.1707805203468979 0.8292194796531021 0.1707805203468979 0.8292194796531021 0.1707805203468979 0.8292194796531021 0.1707805203468979 0.8292194796531021 0.1707805203468979 0.8292194796531021 0.1707805203468979 0.8292194796531021 0.1707805203468979 0.8292194796531021 0.1707805203468979 0.8292194796531021 0.1707805203468979 0.8292194796531021 0.1707805203468979 0.8292194796531021 0.1707805203468979 0.8292194796531021 0.1707805203468979 0.8292194796531021 0.1707805203468979 0.8292194796531021 0.1707805203468979 0.8292194796531021 0.1707805203468979 0.8292194796531021 0.1707805203468979 0.8292194796531021 0.1707805203468979 0.8292194796531021 0.1707805203468979 0.8292194796531021 0.1707805203468979 0.8292194796531021 0.1707805203468979 0.8292194796531021 0.1707805203468979 0.8292194796531021 0.1707805203468979 0.8292194796531021 0.1707805203468979 0.8292194796531021 0.1707805203468979 0.8292194796531021 0.1707805203468979 0.8292194796531021 0.1707805203468979 0.8292194796531021 0.1707805203468979 0.8292194796531021 0.1707805203468979 0.8292194796531021 0.1707805203468979 0.8292194796531021 0.1707805203468979 0.8292194796531021 0.1707805203468979 0.8292194796531021 0.1707805203468979 0.8292194796531021 0.1707805203468979 0.8292194796531021 0.1707805203468979 0.8292194796531021 0.1707805203468979 0.8292194796531021 0.1707805203468979 0.8292194796531021 0.1707805203468979 0.8292194796531021 0.1707805203468979 0.8292194796531021 0.1707805203468979 0.8292194796531021 0.1707805203468979 0.8292194796531021 0.1707805203468979 0.8292194796531021 0.1707805203468979 0.8292194796531021 0.1707805203468979 0.8292194796531021 0.1707805203468979 0.8292194796531021 0.1707805203468979 0.8292194796531021 0.1707805203468979 0.8292194796531021 0.1707805203468979 0.8292194796531021 0.1707805203468979 0.8292194796531021 0.1707805203468979 0.8292194796531021 0.1707805203468979 0.8292194796531021 0.1707805203468979 0.8292194796531021 0.1707805203468979 0.8292194796531021 0.1707805203468979 0.8292194796531021 0.1707805203468979 0.8292194796531021 0.1707805203468979 0.8292194796531021 0.1707805203468979 0.8292194796531021 0.1707805203468979 0.8292194796531021 0.1707805203468979 0.8292194796531021 0.1707805203468979 0.8292194796531021 0.1707805203468979 0.8292194796531021 0.1707805203468979 0.8292194796531021 0.1707805203468979 0.8292194796531021 0.1707805203468979 0.8292194796531021 0.1707805203468979 0.8292194796531021 0.1707805203468979 0.8292194796531021 0.1707805203468979 0.8292194796531021 0.1707805203468979 0.8292194796531021 0.1707805203468979 0.8292194796531021 0.1707805203468979 0.8292194796531021 0.1707805203468979 0.8292194796531021 0.1707805203468979 0.8292194796531021 0.1707805203468979 0.8292194796531021 0.1707805203468979 0.8292194796531021 0.1707805203468979 0.8292194796531021 0.1707805203468979 0.8292194796531021 0.1707805203468979 0.8292194796531021 0.1707805203468979 0.8292194796531021 0.1707805203468979 0.8292194796531021 0.1707805203468979 0.8292194796531021 0.1707805203468979 0.8292194796531021 0.1707805203468979 0.8292194796531021 0.1707805203468979 0.8292194796531021 0.1707805203468979 0.8292194796531021 0.1707805203468979 0.8292194796531021 0.1707805203468979 0.8292194796531021 0.1707805203468979 0.8292194796531021 0.1707805203468979 0.8292194796531021 0.1707805203468979 0.8292194796531021 0.1707805203468979 0.8292194796531021 0.1707805203468979 0.8292194796531021 0.1707805203468979 0.8292194796531021 0.1707805203468979 0.8292194796531021 0.1707805203468979 0.8292194796531021 0.1707805203468979 0.8292194796531021 0.1707805203468979 0.8292194796531021 0.1707805203468979 0.8292194796531021 0.1707805203468979 0.8292194796531021 0.1707805203468979 0.8292194796531021 0.1707805203468979 0.8292194796531021 0.1707805203468979 0.8292194796531021 0.1707805203468979 0.8292194796531021 0.1707805203468979 0.8292194796531021 0.1707805203468979 0.8292194796531021 0.1707805203468979 0.8292194796531021 0.1707805203468979 0.8292194796531021 0.1707805203468979 0.8292194796531021 0.1707805203468979 0.8292194796531021 0.1707805203468979 0.8292194796531021 0.1707805203468979 0.8292194796531021</probabilities>
		</cpt>
		<cpt id="weather">
			<state id="Clear" />
			<state id="cloudy" />
			<state id="frogy" />
			<state id="Rain" />
			<probabilities>0.25 0.25 0.25 0.25</probabilities>
		</cpt>
		<cpt id="dec_lateral">
			<state id="left" />
			<state id="right" />
			<state id="stright" />
			<parents>is_safe_f1 is_safe_b0 is_safe_f0 weather</parents>
			<probabilities>0.3507246376811595 0.6463768115942029 0.002898550724637681 0.3507246376811595 0.6463768115942029 0.002898550724637681 0.3507246376811595 0.6463768115942029 0.002898550724637681 0.3507246376811595 0.6463768115942029 0.002898550724637681 0.3507246376811595 0.6463768115942029 0.002898550724637681 0.3507246376811595 0.6463768115942029 0.002898550724637681 0.3507246376811595 0.6463768115942029 0.002898550724637681 0.3507246376811595 0.6463768115942029 0.002898550724637681 0.3507246376811595 0.6463768115942029 0.002898550724637681 0.3507246376811595 0.6463768115942029 0.002898550724637681 0.3507246376811595 0.6463768115942029 0.002898550724637681 0.3507246376811595 0.6463768115942029 0.002898550724637681 0.3507246376811595 0.6463768115942029 0.002898550724637681 0.3507246376811595 0.6463768115942029 0.002898550724637681 0.3507246376811595 0.6463768115942029 0.002898550724637681 0.3507246376811595 0.6463768115942029 0.002898550724637681 0.3507246376811595 0.6463768115942029 0.002898550724637681 0.3507246376811595 0.6463768115942029 0.002898550724637681 0.3507246376811595 0.6463768115942029 0.002898550724637681 0.3507246376811595 0.6463768115942029 0.002898550724637681 0.3507246376811595 0.6463768115942029 0.002898550724637681 0.3507246376811595 0.6463768115942029 0.002898550724637681 0.3507246376811595 0.6463768115942029 0.002898550724637681 0.3507246376811595 0.6463768115942029 0.002898550724637681 0.3507246376811595 0.6463768115942029 0.002898550724637681 0.3507246376811595 0.6463768115942029 0.002898550724637681 0.3507246376811595 0.6463768115942029 0.002898550724637681 0.3507246376811595 0.6463768115942029 0.002898550724637681 0.3507246376811595 0.6463768115942029 0.002898550724637681 0.3507246376811595 0.6463768115942029 0.002898550724637681 0.3507246376811595 0.6463768115942029 0.002898550724637681 0.3507246376811595 0.6463768115942029 0.002898550724637681</probabilities>
		</cpt>
		<cpt id="dec_longti">
			<state id="acc" />
			<state id="dec" />
			<state id="keep" />
			<parents>weather is_safe_f1 is_safe_b0 is_safe_f0</parents>
			<probabilities>0.888235294117647 0.01529411764705882 0.09647058823529411 0.888235294117647 0.01529411764705882 0.09647058823529411 0.888235294117647 0.01529411764705882 0.09647058823529411 0.888235294117647 0.01529411764705882 0.09647058823529411 0.888235294117647 0.01529411764705882 0.09647058823529411 0.888235294117647 0.01529411764705882 0.09647058823529411 0.888235294117647 0.01529411764705882 0.09647058823529411 0.888235294117647 0.01529411764705882 0.09647058823529411 0.888235294117647 0.01529411764705882 0.09647058823529411 0.888235294117647 0.01529411764705882 0.09647058823529411 0.888235294117647 0.01529411764705882 0.09647058823529411 0.888235294117647 0.01529411764705882 0.09647058823529411 0.888235294117647 0.01529411764705882 0.09647058823529411 0.888235294117647 0.01529411764705882 0.09647058823529411 0.888235294117647 0.01529411764705882 0.09647058823529411 0.888235294117647 0.01529411764705882 0.09647058823529411 0.888235294117647 0.01529411764705882 0.09647058823529411 0.888235294117647 0.01529411764705882 0.09647058823529411 0.888235294117647 0.01529411764705882 0.09647058823529411 0.888235294117647 0.01529411764705882 0.09647058823529411 0.888235294117647 0.01529411764705882 0.09647058823529411 0.888235294117647 0.01529411764705882 0.09647058823529411 0.888235294117647 0.01529411764705882 0.09647058823529411 0.888235294117647 0.01529411764705882 0.09647058823529411 0.888235294117647 0.01529411764705882 0.09647058823529411 0.888235294117647 0.01529411764705882 0.09647058823529411 0.888235294117647 0.01529411764705882 0.09647058823529411 0.888235294117647 0.01529411764705882 0.09647058823529411 0.888235294117647 0.01529411764705882 0.09647058823529411 0.888235294117647 0.01529411764705882 0.09647058823529411 0.888235294117647 0.01529411764705882 0.09647058823529411 0.888235294117647 0.01529411764705882 0.09647058823529411</probabilities>
		</cpt>
	</nodes>
	<extensions>
		<genie version="1.0" app="GeNIe 3.0.6518.0 ACADEMIC" name="bayesData-half">
			<node id="ego_speed">
				<name>ego_speed</name>
				<interior color="e5f6f7" />
				<outline color="000080" />
				<font color="000000" name="Arial" size="8" />
				<position>401 30 473 78</position>
				<barchart active="true" width="128" height="72" />
			</node>
			<node id="ego_direc">
				<name>ego_direc</name>
				<interior color="e5f6f7" />
				<outline color="000080" />
				<font color="000000" name="Arial" size="8" />
				<position>546 31 618 79</position>
				<barchart active="true" width="117" height="72" />
			</node>
			<node id="ego_lane">
				<name>ego_lane</name>
				<interior color="e5f6f7" />
				<outline color="000080" />
				<font color="000000" name="Arial" size="8" />
				<position>259 27 331 75</position>
				<barchart active="true" width="128" height="64" />
			</node>
			<node id="rel_f0">
				<name>rel_f0</name>
				<interior color="e5f6f7" />
				<outline color="000080" />
				<font color="000000" name="Arial" size="8" />
				<position>196 146 268 194</position>
				<barchart active="true" width="128" height="72" />
			</node>
			<node id="rel_b0">
				<name>rel_b0</name>
				<interior color="e5f6f7" />
				<outline color="000080" />
				<font color="000000" name="Arial" size="8" />
				<position>523 145 595 193</position>
				<barchart active="true" width="128" height="72" />
			</node>
			<node id="rel_f1">
				<name>rel_f1</name>
				<interior color="e5f6f7" />
				<outline color="000080" />
				<font color="000000" name="Arial" size="8" />
				<position>871 142 943 190</position>
				<barchart active="true" width="128" height="72" />
			</node>
			<node id="is_safe_f0">
				<name>is_safe_f0</name>
				<interior color="e5f6f7" />
				<outline color="000080" />
				<font color="000000" name="Arial" size="8" />
				<position>649 325 721 373</position>
				<barchart active="true" width="128" height="64" />
			</node>
			<node id="is_safe_f1">
				<name>is_safe_f1</name>
				<interior color="e5f6f7" />
				<outline color="000080" />
				<font color="000000" name="Arial" size="8" />
				<position>246 325 318 373</position>
				<barchart active="true" width="128" height="64" />
			</node>
			<node id="is_safe_b0">
				<name>is_safe_b0</name>
				<interior color="e5f6f7" />
				<outline color="000080" />
				<font color="000000" name="Arial" size="8" />
				<position>451 325 523 373</position>
				<barchart active="true" width="128" height="64" />
			</node>
			<node id="f0_speed">
				<name>f0_speed</name>
				<interior color="e5f6f7" />
				<outline color="000080" />
				<font color="000000" name="Arial" size="8" />
				<position>60 223 132 271</position>
				<barchart active="true" width="128" height="72" />
			</node>
			<node id="f0_acc">
				<name>f0_acc</name>
				<interior color="e5f6f7" />
				<outline color="000080" />
				<font color="000000" name="Arial" size="8" />
				<position>197 223 269 271</position>
				<barchart active="true" width="128" height="72" />
			</node>
			<node id="f0_intension">
				<name>f0_intension</name>
				<interior color="e5f6f7" />
				<outline color="000080" />
				<font color="000000" name="Arial" size="8" />
				<position>59 147 131 195</position>
				<barchart active="true" width="128" height="72" />
			</node>
			<node id="b0_speed">
				<name>b0_speed</name>
				<interior color="e5f6f7" />
				<outline color="000080" />
				<font color="000000" name="Arial" size="8" />
				<position>378 225 450 273</position>
				<barchart active="true" width="128" height="72" />
			</node>
			<node id="b0_acc">
				<name>b0_acc</name>
				<interior color="e5f6f7" />
				<outline color="000080" />
				<font color="000000" name="Arial" size="8" />
				<position>520 225 592 273</position>
				<barchart active="true" width="128" height="72" />
			</node>
			<node id="b0_intension">
				<name>b0_intension</name>
				<interior color="e5f6f7" />
				<outline color="000080" />
				<font color="000000" name="Arial" size="8" />
				<position>376 144 448 192</position>
				<barchart active="true" width="128" height="72" />
			</node>
			<node id="f1_speed">
				<name>f1_speed</name>
				<interior color="e5f6f7" />
				<outline color="000080" />
				<font color="000000" name="Arial" size="8" />
				<position>732 219 804 267</position>
				<barchart active="true" width="128" height="72" />
			</node>
			<node id="f1_acc">
				<name>f1_acc</name>
				<interior color="e5f6f7" />
				<outline color="000080" />
				<font color="000000" name="Arial" size="8" />
				<position>868 219 940 267</position>
				<barchart active="true" width="128" height="72" />
			</node>
			<node id="f1_intension">
				<name>f1_intension</name>
				<interior color="e5f6f7" />
				<outline color="000080" />
				<font color="000000" name="Arial" size="8" />
				<position>733 141 805 189</position>
				<barchart active="true" width="128" height="72" />
			</node>
			<node id="weather">
				<name>weather</name>
				<interior color="e5f6f7" />
				<outline color="000080" />
				<font color="000000" name="Arial" size="8" />
				<position>90 420 162 468</position>
				<barchart active="true" width="128" height="90" />
			</node>
			<node id="dec_lateral">
				<name>dec_lateral</name>
				<interior color="e5f6f7" />
				<outline color="000080" />
				<font color="000000" name="Arial" size="8" />
				<position>496 440 568 488</position>
				<barchart active="true" width="128" height="72" />
			</node>
			<node id="dec_longti">
				<name>dec_longti</name>
				<interior color="e5f6f7" />
				<outline color="000080" />
				<font color="000000" name="Arial" size="8" />
				<position>298 439 370 487</position>
				<barchart active="true" width="128" height="72" />
			</node>
			<textbox>
				<caption>Input file: bayesData-half.csv\nData rows: 11999\nElapsed time: 3.125s\n\nLearning algorithm: Bayesian Search\nAlgorithm parameters:\nIterations: 20\nMax parent count: 8\nSample size: 50\nLink probability: 0.1\nPrior link probability: 0.001\nSeed: 0\nMax search time: 0\nNo background knowledge\n\nBest score in iteration 2: -131148\nEM Log Likelihood: -131409</caption>
				<font color="000000" name="Arial" size="8" />
				<position>955 301 1132 539</position>
			</textbox>
		</genie>
	</extensions>
</smile>
